{"weights":[0.8934919578074134,0.781068679226501,-0.26781683425353453,0.6906770773882474,1.0327260458435916,1.0008637009308419,1.0992257929356384,-1.1428421153007042,0.865459828581235,0.8476890683360118,1.1298096296293332,-1.228333723464631,0.34751533199089507,1.2992783423648657,-0.18721708452140176,-0.7954582485253638,0.8456598160903276,0.1590127900154659,0.9822609126589588,1.106156894047469,1.4532968902658099,0.2642738907521104,2.826582647395576,0.6373192054618533,-0.07604071412427131,-0.7204171947454693,-0.8878987833310411,-0.5533722898256613,0.7032881868597276,0.36244658603280067,1.0135592477295743,0.5830704075980546,-0.3701711917081976,-0.919916052465438,0.8993501543325404,1.0345742553203348,0.43780260258188364,-0.3452619830288081,-0.06898722311809968,0.8686832338073683,0.6683371689821385,0.600045843922153,-0.9301713177787252,0.7257140180080501,-0.17478443421832623,1.234981011530691,0.20792853511545695,0.6491367195596779,0.9996342857455048,-0.45055936680965947,0.9043569830146705,0.9547928900457702,0.7932120731802988,0.741691416590986,0.9317350681634202,0.7128676532515411,0.9677210732799048,0.41053347640804116,1.0840330519852073,0.5566536032835515,0.9157158735729439,1.1091895285109967,-0.30717253901726277,-0.20972260052994282,0.32278604756325197,-0.016549292701163117,-0.37597268530504363,1.1164216385023562,0.8268511282223169,0.4893759141329962,0.0911345228327277,0.5028165575206163,0.7183759232912053,0.37994940047530795,1.0650169965622995,1.5238820710020864,-0.0036738711031143183,-0.6608867515423098,0.9207593468436988,0.283205791006163,-0.3398002881981813,-0.33510995800554105,-0.7782544568136395,-0.8075418379160696,0.3448523522924468,0.8319276785179568,-0.1764353545651253,0.2809596824804106,1.0522292806707536,-0.45034469737717475,0.3100257024904524,1.0748666681840904,-0.5006745886836471,0.8177204246234769,1.396768613766663,1.6106852080449356,-0.21501891133816506,0.7663273348840219,2.2253158480387136,2.2170702645968436,1.5297346101394644,1.1281778517263645,1.46939567144183,-1.0310774465834576,0.5311342180365376,1.333855659326886,-0.9356371791058941,1.023424889020709,0.7905160114028706,0.7594805916511962,0.9458506447326472,-0.539577952091053,0.8419427730527074,1.0032935000254288,-0.1634570661330721,0.3936295579098312,1.0508510738583048,-0.3270891310733373,0.8984679925959869,0.797117642300027,1.8060902280313538,-0.04138639507901029,-0.05233278709629451,0.01943902806599555,0.27086463960331625,1.8282193423412443,1.4248886018635547,0.5120968760231451,1.083994696824947,2.6012335184313913,0.8424415235403498,-0.18522958062595554,0.6442329294120509,0.2019874178264452,1.698664294130344,0.8270105208165447,-0.43081259020241647,0.38165602838158413,1.1483426517443496,0.7384042241412547,1.1264608361848933,0.666201055378169,-1.2233951649192167,0.9923304416781669,0.11189081761434168,0.8208939952429388,0.9013998998559909,-0.8038272336981491,-0.3431908499694951,-0.28693898611570884,0.6112514205520851,-1.0345995040099398,0.21743044858440694,1.058151432407659,-0.5953026716958951,0.5471400509340398,0.7552014588898727,0.7374228954869253,-0.31085518567128717,-0.5984523688586433,0.10438005747125226,-0.20983490270498117,0.1532002856201577,2.0502486243300053,1.4590566941640593,-0.12832767240405174,-0.8487396283647477,-0.640311006685979,0.6706830096131072,-0.35166398034273494,0.9652739846944914,0.9398926317342766,0.999899013214264,1.2221332080101752,-0.5046492031077647,0.3311640417121019,-0.9711691680517295,-0.704768686284579,-0.24877832913324924,-0.46898024357311996,0.6089814193976724,0.12350108676675697,-0.3691873322166192,0.825013941839105,0.3068285537893909,-0.7631817041701927,0.21763575326985266,-0.357362387641462,0.2357726362971103,0.7475535998447876,0.32931667887027494,0.12343685587561223,0.22777808221336077,0.35926478029726483,0.22432271386551184,-0.7945514425547666,0.7701651209022993,-0.5578865304697401,0.7053758807763206,1.0933158531181808,1.6732336914299888,1.7055984199289498,-0.9218892762990307,-0.8574413258615383,-0.3269640228714851,-0.643046141840626,-2.5210949056896634,-1.0621859124653161,-0.5474026481882273,-0.9525090078435856,0.04973293213741818,0.2690511303058561,-0.13647244713788273,-1.23904010902882,-0.3510056196619968,-0.22367020321338588,0.36833195293555987,0.2853284902875011,-1.12241539197916,-0.3555468597255627,-1.3689314443706158,-1.2368597879118874,1.1361069654348013,0.48508654721501326,-0.5954132037000427,1.4106398490191245,0.8341109922596999,-0.3168064834051814,1.6185206103566518,1.5587511384948132,0.8338693787327798,-0.5136294160149716,-0.07161760794250475,-0.8885416375034652,-1.295187202626984,-0.6284403573970817,-0.668390123267768,-1.1042277003306658,0.7921049064633342,0.6297701492124821,-1.1633379616525878,-0.6528456637386136,-0.01606648258779676,0.3561037867986934,-0.28114244372915775,-1.2804866652123916,0.027973069242496238,-0.25572610267393364,-0.5484771672130397,-1.3848620722738416,0.42796281728868363,-0.06037342285307976,1.5374044302361218,1.1264288153760376,1.3444567973644805,0.7531256280550537,1.595623998792364,1.4685078536259124,0.5274876095211846,-0.42968385016357463,-0.7615997286480423,-1.262735689198741,-0.32397047711977006,0.016902176559062405,-1.6634585561280857,-0.4810791154625037,1.6277519023999047,0.683891324630436,-0.13238436148329347,-0.7132578422381388,-1.1176310570111332,0.13588843232671685,-1.1112287655321915,-1.3359615790254227,0.11240135779066868,0.5970004192365514,0.5126851015798077,-0.9127619493509572,-1.0533238593782048,-1.5231834974355274,-0.14682192704655175,0.7101505438640345,-0.3577812833915085,1.334605113125397,1.6272134930792077,1.0388664839598827,-0.6025894793442763,-0.6646458770208692,-0.49803385803412853,0.1024204221933958,0.2643946985934122,-0.2967152689352396,-1.424763291492662,0.2064569090999611,2.271955174263172,1.03587865162969,0.2737536640920159,-0.4878522867199949,-1.0953337506720664,-0.08626749250060732,-1.8760829361685953,-0.0067183262114501865,0.3898704474699625,1.2851030198409086,1.0645851794001113,-0.6896455330123081,-0.9637144195615034,-0.02764642038260269,1.0459935006195418,0.5701330355101011,0.06408577278737276,-1.951661752585115,1.6797336264773588,0.4259230875965477,-1.3737324023420059,0.21471445089189337,-0.6288522097835816,-0.5281370060381496,-0.03931739460221911,-1.3718312786142293,0.6639019355163682,0.6722076920164881,2.753257833357126,1.8136303937988427,0.1998644673863877,-0.5055157270185194,-0.5688514964125633,-1.2162545401409888,-0.6997261784595852,0.3852188016885804,0.2572268319990835,0.48861780141039773,-0.3877415945042608,-1.0625159853106443,-0.765987431820423,0.612947796195926,1.2464524765036231,-1.2329179613404555,0.4746472897063825,-1.1437798275278097,1.357271983461724,-0.27574950511713403,-0.47149729296349424,1.0004158781802415,-0.5965746695514021,-1.418496026545916,-0.9563121985074526,-0.7226572228275098,-0.021275739724279152,0.8824779641066559,1.5028788087590428,2.7208512970209062,1.2140144430636879,-0.1266639441524584,-0.9333769947170891,-1.7085598416448051,0.15217243242036577,0.1186447571541027,-0.3546094369247121,-0.5369796394352969,-2.6777292530853245,-1.4429529608384595,0.5716558589316995,-0.04434755679986295,-0.09652625779385328,-0.42959890007539236,0.9177715505456742,-0.7627862771816549,1.1821660299843177,-1.5389417750767478,-0.0444842014114222,-0.2591214072066238,-1.5206773729736482,-1.2402906721367568,-1.2325163040693896,-1.2374726497783763,-0.7663271863358214,2.098507424918783,1.3839307115951678,3.636262430139293,1.830973137015121,-0.9027205573332082,-2.032418532628496,-2.7515192867871883,-0.9354181069698129,-2.2240558630558285,-2.912500522825311,-2.4052279881963106,-2.0929380729348965,-1.6278403891445974,-0.9520834443431205,-0.47897392074959627,0.376957802847489,-0.5802466342552248,1.1858139678039727,0.8826094533698972,0.8651698188885405,-1.2535983757859164,-0.5500444042122865,-2.998810516210242,-2.604224598445942,-0.09122658578309033,-0.9437223214790278,-1.5201250713829766,-0.4226570981104618,2.771212441146209,2.4170059488067874,4.247271549098028,1.8470626424302747,-1.6834227724945474,-2.8991568431868617,-2.702189911235916,-3.123079186716912,-3.787977059394268,-3.170155500542494,-2.2254779204023722,-1.9573262783506638,-0.9992991805554348,-1.1889641355587228,-0.34573509384573414,0.8045325092847238,0.7760924463256023,-1.8248330597947784,-0.5023880562184887,-0.2086873794641418,-2.5827156187900204,-2.3739660833244876,-3.336836074136268,-0.7059689924470173,-0.4983762973117623,-1.65673355198717,-1.3700677244441493,0.9866962051453659,4.92873114415027,2.5421071755641176,3.2608220742718332,1.0830265567042576,-2.6956516070426404,-4.314178589581516,-3.0113236385223585,-3.5916903060614636,-1.6529416694730423,-1.0859064861963086,-1.2565408784443972,-1.8382459551581116,0.10061441301851082,0.5639113811435956,-0.9784008418435307,1.3832857307458741,-0.8314183410345368,-0.9044137394831813,1.4974711296207572,-1.8535639673185653,-2.2247228715476317,-2.13276174079852,-1.2826601753826343,-1.3126824304708715,-2.3807331461174632,-1.9544845743696355,-0.23408442279021868,3.312007604814551,2.7592810465306616,2.491734894619025,2.8884949100705044,0.23915499294167333,-2.45156140488407,-3.371597039684074,-3.087572093867184,-0.7601151853513789,-1.093983926530853,-0.7995485086514268,1.139299380786028,1.2678489983189336,1.44509693403325,-0.8920992643407185,1.0573923004634582,-0.0926522913022231,0.840219241992014,1.021207840095746,-1.1565295497470374,-0.05896883182311615,-2.2018236168153367,-1.7481287315216645,-0.5354176374188984,-1.5637935181202167,-1.6117759931089906,-0.8300322327286386,0.9911081529009289,2.789553991095429,1.774998443625477,1.2093498843582742,1.8309303969813053,-0.6738059053016833,-2.3613003637424423,-1.74040318005223,-1.4179099276333627,-0.032619265499843696,-1.1024604359209185,-1.1055304931852925,1.4702415210174837,1.5182879077525362,1.820950597723982,1.1014952603380639,-1.1036424139664196,-0.8604592494001824,-0.1532129504699115,0.5923709149166747,-1.0621267333209514,-0.3723085470258791,-1.4733055340326804,-0.2602615166534287,-1.330783000297002,-1.1547560430426105,-0.36089958777628883,-0.1183525114295073,0.6266880730556016,1.9513367970231001,1.2752172819995162,1.4683249424061542,0.3419032765623985,-0.6843051175428466,-1.6730538934979187,-1.1231942423217576,0.4949712018762598,-0.20240509613999674,-0.4596758168985376,-1.7671715421029333,0.8942738429106108,1.5873168587452917,1.8676391362372453,0.7403662229259483,0.9907038647827071,0.9333038321577463,0.2787758722726119,0.4997609581716304,0.7280508159106754,-1.447047754893428,-2.208803525057683,-0.1185245419622912,-1.365795621912166,-0.2875750468927952,0.147047631472474,-0.526272629014797,0.23586542904924912,0.41279738053121523,0.6093235691460321,0.3801522300455286,0.47800760098200473,-0.8069667770278667,-0.672519000779108,-0.7270403221326304,-0.6874115897711092,-0.8741937995244038,-0.9180756226793427,-1.2883733047630412,0.31045234694191814,1.3057225321764119,1.6856286101663809,-0.2735228842139926,0.25762715189010893,1.241090684981699,0.21217025241023096,-0.43112462423008036,0.6572416117492127,0.13528527323131284,-0.5099498990916583,-0.7224863782692404,-1.1177399675959043,1.8304005632628904,-0.47883655414458454,-1.4921669345972772,-1.0495274936496675,-0.48166965010777296,0.05630121755021002,0.5483980654798674,0.08984298579492314,1.253659268791067,1.3042247368542277,0.6219485973899499,-0.2512278869071082,0.42572641120101745,-1.7047363031209448,-2.1765210762617104,0.4923627340190612,1.576292941701788,1.523108881069192,0.8992015711642217,-0.9554232380955023,-1.382664473594068,0.5993149725217143,1.4368960143011786,-0.24258937520926185,-0.39669306224761786,1.8727989490635821,-0.5298353915855762,-0.013455246258580415,1.8345473319762164,-0.5341726234162323,-2.2548605140310967,-0.9935267826798795,-0.9582507726979419,-0.7175433325552635,0.3159043497499693,0.4618819109950699,2.224295600693133,1.5754766230372061,0.8543701623439872,0.2499214015972888,1.5532702902961995,1.2223105247860626,-0.566575829526257,0.6905440106595377,1.545616574399264,1.0199141522456463,-0.6132446156257136,1.0726432781726112,0.48226586490403267,0.8344641257190772,0.33182316808948087,-0.062372016637553956,-0.7239194811237885,1.401229612051511,0.1175583152646828,-0.05329332240854772,1.5923498807813221,0.10612534484208795,-0.8552779283708355,-0.9199486185656446,-1.9532739995203603,-0.7378557708091932,-0.0019103941468422432,0.9894362797289992,0.8258345532447643,0.7062296132679203,0.6135804225681605,1.4938580867650382,1.2174996097447262,0.7808194456669048,-0.2458790853587031,0.6779470915126389,0.8156858235310681,0.9401601929569937,0.6781719278999312,-0.9138810736524033,0.8740428341861702,0.5934156533374048,-0.9755033576694332,1.1770630157867017,1.2524983332577555,0.30943176741742445,0.980241159437713,0.5796456098905101,1.6875306400119354,1.3267335446699333,-0.9572056792776255,-1.4362844585295065,-0.37287046004048885,0.5334182936931143,0.4986063294764893,-0.08841952694962876,-1.1582452184773635,-0.13800976683169328,0.2467928913811604,0.577727864417911,1.3329831076733314,1.1293325207075928,-0.3794634208694336,-0.0587175391686302,-0.8696503707967622,0.7416505534239402,-0.6083226344957184,0.8176176266759707,0.7751159898462963,-0.19345345817668871,-0.2351895530416129,-0.17030698856809592,0.1559810854383213,0.6162769838846894,-0.313270731262536,-0.6916540001567951,-0.6207015863780296,-0.519321000029124,-1.2743828247604387,-1.6449971358839153,0.3290759582820693,1.4519405970915953,-1.3040650399052784,-1.0421269890017433,-0.7114506670264625,-0.04240329434395078,0.7251865665910001,0.5521905650922041,0.3688391449204104,1.1490767880723673,0.987520477309836,-0.5710209398949081,0.050917072922841415,0.20089050473109182,0.1637948179543759,0,-0.1947377062767214,-0.739997136196717,0.3333978182675164,0.1757348336521941,-0.4202304198320261,-0.012569493115045453,-0.3526583149922574,-0.9504367555767179,-0.025984599222262404,1.228201114825046,0.8078560209346884,-0.030407057206200447,2.3662175509913848,2.218991867781256,-0.5216514078809115,0.0006084413045165518,-0.11767707759130086,0.8133044043481026,1.0002372171974652,0.40923046525290036,-0.4393760603671645,1.423975180512463,0.7295620548035218,-0.2986775980091032,-0.03655733034587877,0.17559486244754421,0,-0.01827220636764196,1.2581955680565367,-0.16098138940649998,1.044784025044478,0.16845424567869452,-0.4662448857755797,-0.19808271365389582,0.029764206622394773,0.4939004834777976,0.9027240308430284,0.4100271511110744,-1.2076910947854271,0.9074299375511332,1.490728991719293,-0.08127375273625816,-0.9466509807311746,-0.341878180726371,1.21053055830757,0.5155093709396475,0.6860735264251131,-0.5228259564916958,-0.15779489339268518,0.5772237709972826,0.8587181488366671,0.03619911250701105,0,0.07990536785901033,0,-0.018819601815890007,0.9696098666117164,0.25050404049341257,-0.2848151024600883,-0.1746804956732982,0.8689867051693431,0.7559230001486588,-0.2280075731626728,-0.47243178208582376,0.36942407730749693,1.5703662445265363,1.6112239038363751,-0.17447345282359752,-0.06108357362721415,-0.7133630131596091,1.7657600468396426,0.956628418431967,0.2870678227564939,-0.09171626933493868,-0.4626834040494194,-0.7513377050560486,0.38932423764827034,0.4715420340477865,-0.042625577576719025,1.3192543411214002,0.11198233552868184,-0.02708318132785302,0.027319530146527205,0.09298641333101354],"bias":3.02787653595519,"m":[1.2459685424050246e-19,4.499674671539057e-15,2.24979117137344e-15,-4.477163779805655e-20,2.394756493226648e-19,2.999765060582882e-15,-1.3320070696353437e-19,2.0766142374438774e-19,-9.264631560239732e-17,2.0313986759593563e-15,2.910331005490655e-15,-1.6768590215552e-16,9.70148671756974e-15,-3.875848603489264e-17,2.1403779013341688e-15,1.4996012769748244e-15,-7.559616042692136e-19,3.6473894468557915e-16,-1.0405483008707054e-15,6.373121523671347e-15,1.4069368745535009e-15,7.026753187993466e-15,-1.511115503940624e-16,1.7130506727298277e-15,5.002545368578175e-32,4.7342890035724e-25,5.523336294885487e-25,3.945240212574019e-26,5.249617200359248e-15,-5.921602886620405e-21,3.2577957186914963e-19,1.2533965878300814e-19,1.4856096000116964e-21,2.999781257348399e-15,3.749727871592679e-15,2.9997812573492954e-15,1.175046364627563e-14,5.216491772499371e-15,-6.914938382616563e-17,-4.021522472113179e-16,3.961176018555148e-16,5.968224485840523e-16,-1.7968181664352374e-16,-5.082116280944971e-16,5.5351823824407425e-15,-1.017750599369592e-15,7.5147321979190675e-16,1.3253299019300444e-15,-7.059367972858392e-16,-8.85177477045413e-16,-2.376228091825277e-15,-1.75329421341957e-16,-5.162973773762713e-43,5.007716285810515e-32,6.257320585771833e-32,7.508146221658991e-32,1.5001788581185333e-15,-8.954327546645158e-20,-1.3431491339417646e-19,4.49967337163104e-15,1.4998910000769834e-15,1.24596854243137e-19,5.401054027764546e-19,3.67311857381674e-19,-3.257393448999441e-16,-1.6831516250245247e-16,1.4204031211719219e-15,7.787604040413488e-17,-2.7872358269668975e-15,6.881475393006923e-15,3.988708413654769e-15,1.4998045384246016e-15,-7.079576982468714e-16,-1.4055828270208393e-15,-3.3764719765523425e-18,5.83326855293206e-15,1.1544534637706996e-14,1.070989866686238e-14,8.68894164511373e-15,-2.966705282029038e-16,1.5780960842498068e-25,7.890480420647779e-26,1.183572063127064e-25,2.761668772760544e-25,2.396613509087745e-19,6.404278017655889e-28,5.999563257500582e-15,8.249725537186772e-15,1.1811814827623927e-19,1.7865456109367216e-36,1.4998464141394912e-15,-1.7815804570453345e-19,6.6679667902481685e-15,-4.684034218752793e-16,1.2916105036455132e-15,4.110975572278935e-15,-4.463473048629235e-15,2.5693392254809805e-15,-1.531554028953617e-15,-6.365939756227795e-16,-4.49478478916011e-18,1.79692993143894e-14,-1.1366386887393743e-15,-1.0204392618722336e-15,-1.2309973302876052e-15,-1.9476006080497968e-18,-8.902673362616425e-16,-1.0783075501516175e-15,5.008130629081349e-32,1.84919498328024e-37,-4.2812308295758326e-36,3.945240210423535e-26,-2.2385818899039564e-19,1.49989062867484e-15,1.4998913714783726e-15,1.5965043289677435e-19,-1.4079361884458924e-19,3.749682728554272e-15,8.24948263648395e-15,2.2500856938228012e-15,-2.1736119686995874e-16,3.730989979739585e-15,7.356055202455634e-14,1.4966095031914498e-13,1.8735412623255156e-13,1.8207629808190405e-13,1.8017167846193735e-13,1.9115894340123065e-13,1.8479256683057569e-13,1.4906615043767847e-13,5.127286616737767e-14,-4.29254982100603e-15,-2.564745086553072e-15,7.097538161222143e-15,5.632422413414399e-15,-5.326314149589569e-16,3.9452405859465376e-25,2.5027255240523486e-32,7.519735691415769e-32,1.250008879649674e-32,-1.4347586933471524e-19,3.750183426818033e-15,5.122224876028996e-28,-4.4771637798046544e-20,4.4996248035373614e-15,5.250034194517007e-15,2.6984911458382134e-29,5.283341363709532e-29,2.972095267109695e-14,1.1248192896155711e-13,1.8742359816728844e-13,1.8985116924818925e-13,1.726805196289685e-13,1.0758475869827703e-13,1.0008686173182245e-13,1.0004380862483817e-13,1.6048376144701184e-13,1.7964114769864898e-13,1.6797913658058351e-13,1.3082748588640112e-13,1.9004567956742814e-14,-3.32794561025728e-16,1.3053570991624341e-15,4.672134549135006e-15,-1.2641833161998233e-35,2.3525718976558345e-35,2.367145128773507e-25,5.523337296139373e-25,-1.3338640802324074e-19,5.2500744268939846e-15,4.15322850025173e-20,-8.954327521039134e-20,1.1249679402379992e-14,1.4665676341327905e-29,-4.477163771371363e-20,1.7248909471729885e-14,1.063205309972991e-13,1.9051381399398923e-13,1.6384088592733795e-13,8.298662040252171e-14,1.7912368872081255e-14,-7.632476731578924e-15,-4.41025429577751e-15,-5.535841613909951e-15,3.5437917252830204e-15,6.250616320902415e-14,1.2615794384208068e-13,1.7437851387412187e-13,1.6151209890980244e-13,5.0247226430903255e-14,8.463054788340469e-15,-1.4181544784330544e-14,2.0120727958858082e-24,6.204225642474326e-35,3.698389966378939e-38,1.9726208561115942e-25,6.533067568878919e-28,8.999634869439793e-15,-4.384313243821626e-20,-1.7908655055215042e-19,5.249660589654844e-15,6.076665675972505e-29,1.2751734041221462e-14,8.850167514063894e-14,1.8441953545084188e-13,1.8825679484102206e-13,6.058985281032528e-14,6.513917259876621e-15,-4.062839364701006e-15,-4.747017214976457e-15,2.3108348526070654e-15,-7.629810140103198e-15,-4.967490026337867e-15,-1.0947990678680703e-14,-6.584169091940036e-15,7.002421616454401e-14,1.9017899740804208e-13,8.344113633358018e-14,1.1947152183378337e-15,-3.770695885620035e-14,9.942006521074131e-24,3.9846928381417856e-24,2.3332803074862687e-35,5.003541901210459e-32,6.740154935770529e-19,1.538976161634103e-18,3.749726589302686e-15,-1.9055435346407485e-19,3.047114454588895e-18,1.0499234441044518e-14,-4.902462747934243e-18,1.8448644314375075e-13,1.8589243665867406e-13,1.8799346342358004e-13,4.320549134371943e-14,-1.7198701642659608e-15,-4.0547406602002705e-15,-3.5001911015787106e-15,-3.789552655136119e-15,-6.058589285912393e-15,-6.5844863653907154e-15,-1.5428544880073377e-14,-1.5918406719976526e-14,8.97402525451918e-15,1.1472837667480285e-13,1.6805245210466169e-13,8.932208945510123e-14,-4.287495310301299e-14,1.5019220992118899e-15,2.0314717961189608e-18,2.249835943057208e-15,2.24983594326112e-15,5.999562523842129e-15,4.752290165215074e-19,1.4998905602444689e-15,1.5000569437942728e-15,5.0790544509868635e-19,-4.9078900947050955e-19,2.3989647040013538e-14,1.7098616469173463e-13,1.9117796689245048e-13,1.55518376373094e-13,3.6784007692982385e-14,4.2146907327520475e-15,-6.2520894698552696e-15,-4.214107181606766e-15,-2.4154203483468178e-15,-1.0674850311218685e-15,-1.8178773212276315e-14,-1.791620124004409e-14,-8.605534856858473e-16,-9.11771098216056e-16,1.3144201835012054e-14,8.351485388930766e-14,1.297127391119742e-13,6.00267788853791e-14,2.9997812594039164e-15,8.999806881531456e-15,4.5047058017788574e-15,9.00188310236602e-15,1.4998908152640133e-15,8.345863721136583e-20,1.3445465334233177e-18,6.001111458753391e-15,3.7496370591029465e-15,-6.446685715094076e-19,1.0123646531744777e-13,1.8823711493207866e-13,1.3579746472588458e-13,5.385126124786871e-14,-2.04935489176624e-15,-4.02543878634797e-15,-1.3733325039737209e-15,-3.826858701344507e-15,-5.4815491526075705e-15,-6.958409712715057e-15,-2.484826203789968e-14,-1.9152509911943908e-14,-4.251369192750771e-15,-2.2973627494504775e-14,-2.905522318285841e-14,-1.8284897445454825e-14,1.2896089974356588e-13,1.5235903352703371e-13,4.018156942612807e-18,-4.4769103762707565e-20,-4.47543922278117e-20,3.002424798920716e-18,7.919279870801411e-19,7.499456864081941e-16,2.2712935957509206e-18,2.2516501801437192e-15,-3.456676603687838e-23,9.65213703508873e-19,1.5523891708105046e-13,1.8449669404488502e-13,1.1242018549754206e-13,2.61979257926644e-15,-2.347052717649835e-15,-4.8988257633939935e-15,5.18150494245242e-16,-4.4161975545089616e-15,-4.240545296830521e-15,-1.6056083929629825e-14,-2.5880218532901234e-14,-3.71338911525661e-14,-4.289620630249487e-14,-3.812187937701477e-14,-3.2717408361981105e-14,-1.5848179890179e-14,6.493292416197158e-14,1.9093844526951536e-13,5.853382459981825e-14,1.5003984953390492e-15,3.451657858601268e-24,1.5024299589920652e-15,1.7628647051599697e-18,6.749507853599012e-15,1.9423091662885796e-18,1.5008934547809353e-15,7.494990551499902e-16,7.518242242246913e-16,1.8748847457860673e-13,1.912524928612223e-13,1.2759918353306412e-13,-1.5187299787734717e-15,-3.0721327906078165e-15,-2.100256805272989e-15,-3.669717355932056e-15,-7.527060756096563e-15,-1.182497142597319e-15,-3.4510626556947566e-14,-5.701049131272706e-14,-4.4184653395467227e-14,-4.311375001697383e-14,-4.5224426479492106e-14,-7.203025944336264e-15,2.1228120466022166e-16,2.1109035606584203e-14,1.7246131230491273e-13,1.3128766192589584e-13,7.618004137272987e-18,5.249617220588372e-15,4.5707977613228575e-18,1.7056940397126057e-18,4.499671835683285e-15,1.3892184530507294e-18,7.499453659258555e-16,7.509618132753832e-16,1.2000141729894514e-14,1.747416482560612e-13,1.91269263435785e-13,1.1266715423085059e-13,-8.326420012250121e-16,-1.8117989079534418e-15,-1.6906364633492946e-15,-1.0682178492744152e-15,-5.91768252725351e-15,-2.3319043997819867e-14,-7.132028129988386e-14,-6.163880262526194e-14,-4.627441499140713e-14,-2.9413003007910785e-14,-1.3577007054780049e-14,-1.8972900022903158e-16,1.3994376548444393e-15,-1.7991914313763734e-15,1.3163969761065117e-13,1.7249905895611883e-13,1.2751101814643432e-14,2.0314713123433027e-18,3.047196304227419e-18,1.099837403635882e-18,2.24983598286052e-15,2.449732581072185e-18,-1.3430015966250534e-19,1.478934017640104e-18,-1.7842220993290425e-19,1.0874715216518222e-13,1.777937102132371e-13,1.193278845276199e-13,3.887482712015258e-15,1.172875583714682e-15,1.1179768178842159e-14,-3.883237279724694e-15,-3.394275653178089e-14,-6.383265480739874e-14,-7.069507992970149e-14,-5.300125115534726e-14,-3.123854687207339e-14,3.1489927172170622e-15,4.130647754223109e-15,-6.373806369034517e-17,-8.194927380840756e-16,-1.9891746044027794e-16,1.1316785148047024e-13,1.9123565272183088e-13,7.424440703321322e-14,4.501195484818462e-15,5.999562514977577e-15,2.249835855662197e-15,-1.7905463412772828e-19,3.555312179377038e-18,3.749681985879291e-15,1.0993324208598465e-18,6.74963416068948e-15,8.625068692891724e-14,1.9131140638930107e-13,1.1892346897127563e-13,3.341533380373282e-15,-2.0309379211295185e-16,-2.459888373168017e-14,-4.2827712064800254e-14,-5.167598942500277e-14,-6.645969259937963e-14,-5.870181899710195e-14,-3.6017380100550116e-14,5.854884013682664e-15,-1.9953185981559916e-15,-4.8051745050628846e-17,-2.0877868345180706e-18,-5.869087132887303e-16,8.090732966580852e-15,1.1898771629241942e-13,1.8148808170296756e-13,1.0124526168710479e-13,-4.4741307578619336e-20,5.249617200637589e-15,7.49945883643318e-16,-3.490170305768161e-16,6.479499417856096e-15,2.0840673808925094e-19,3.0054727119383892e-15,2.0855177578307263e-19,1.0019110082425637e-13,1.9054631019361923e-13,1.2055756988663926e-13,-4.372173240213763e-15,-2.915915786892912e-14,-4.451900810858659e-14,-4.242888922641063e-14,-5.903688858192962e-14,-6.535723094673952e-14,-2.4394654342567505e-14,-4.969285527635666e-15,6.295779612427763e-15,-1.6254486097804315e-16,-1.3995151612809263e-17,6.420303018409194e-16,-1.3510860920801946e-16,-3.4411734619256678e-18,1.2368507033331448e-13,1.8447633990379125e-13,8.324342475732395e-14,6.000070380756148e-15,2.2495673131939567e-15,4.145720193195574e-15,4.1061802172495634e-18,7.501498678100744e-16,-2.8316580105432206e-15,6.004232543455425e-15,4.204561212097656e-17,4.971916977565844e-14,1.7927003515034737e-13,1.3839769975506778e-13,-2.6892414623106014e-14,-4.449712267356238e-14,-4.0123775205134695e-14,-5.3399962999497494e-14,-3.405442923259236e-14,-1.3957092722670393e-14,-6.494300479185805e-15,-3.983086607911375e-15,-4.114064882645406e-15,-3.881340628954684e-15,1.018782431768231e-14,1.0904188284749117e-14,-6.559757620232454e-17,5.867995699175205e-15,1.372270455848225e-13,1.8597502161824828e-13,2.0993454408333123e-14,7.471225049532876e-19,6.7515393067873705e-15,2.249477784285472e-15,-1.7667088546955021e-15,1.502088200349747e-15,1.4998906550466393e-15,-1.7680455675903465e-15,5.080466220940316e-19,1.1250600182678106e-14,1.7877407853560093e-13,1.42817879735806e-13,2.3789031751382338e-14,-4.685983443605557e-14,-3.1066067357151236e-14,-2.1843096194071142e-14,-1.9907250854820065e-14,-1.2137706504184062e-14,-1.1781792206194266e-14,4.9287392337484e-15,-3.928061617189859e-15,1.925198413917495e-15,6.137012874311055e-16,-1.0180933364053327e-16,-2.656264393846535e-17,6.59637432424911e-14,1.9122433241620589e-13,1.5148319763940822e-13,-3.430675621039297e-18,-1.0297407722379908e-18,8.999343775489607e-15,-1.061951085629074e-15,3.7449764749098034e-19,-7.158297258735617e-16,1.499891005337221e-15,-1.061481184154513e-15,-1.0601815293781326e-15,-2.4066477504715866e-14,1.0563779321633801e-13,1.4556579323277084e-13,1.1254522828996347e-13,-8.676833498669762e-15,-1.6826469609445695e-14,-1.6548607784625774e-14,-2.216248666545458e-14,-2.91787268076912e-15,-1.993326560879132e-15,-4.07255376966449e-15,-3.802123681314959e-15,-1.873156093570275e-15,-6.814755070556582e-16,2.3931077882357574e-14,1.1246882058140071e-13,1.6799085931869749e-13,1.8505940615681958e-13,6.674499869146331e-14,1.4998906287994632e-15,5.250632932471296e-15,1.4998010853984742e-15,2.252665821524734e-15,1.2498493998382904e-19,-8.851477606216577e-16,-2.4770292378478487e-15,-2.18785342945372e-14,-2.501338118855158e-14,-3.2913574836512644e-14,-4.96231044228446e-16,1.3138477606900442e-13,1.6001324233031416e-13,1.0738269876693024e-13,4.0878694796451383e-16,-2.0184872866302647e-14,-1.5483956821795133e-14,-1.0477073222246611e-14,-2.6593884012443956e-15,-2.3836448774253297e-15,-4.192027249959195e-15,1.9019391308415416e-14,6.091738275593255e-14,1.3490274118910116e-13,1.9114117383184188e-13,1.6048827615102348e-13,5.2416007878342545e-14,-1.3431481307968936e-19,8.998940827680423e-15,1.897162740343313e-18,6.094402631676829e-18,1.1470383286653991e-15,4.499671908306875e-15,-4.4764270127819983e-20,3.4565325042618133e-18,4.4996718846086134e-15,-3.5395038559640595e-16,4.051893607582521e-15,-5.422999956643482e-18,5.2342683741876316e-14,1.7576602751379246e-13,1.6717819319591283e-13,1.5040710703413133e-13,1.0235443009224479e-13,5.841630374888422e-14,1.131492486333378e-13,6.707552410750618e-14,1.1631718632477095e-13,1.2841767825573777e-13,1.763948197891504e-13,1.910750861641679e-13,1.9120413084159302e-13,1.4322125848049632e-13,7.391553396932868e-14,-4.1512944474380156e-17,3.9105685354202857e-17,3.0038441992905994e-15,1.0115627992959311e-23,8.252864000375985e-15,-2.682381523437218e-19,3.7406499368012524e-15,1.0115544833756108e-15,-5.297030013282667e-16,-3.5332563036825414e-16,-1.0618551246946254e-15,8.99747288938047e-15,-1.4580974039309298e-16,-2.3709871781603896e-16,2.59235322241461e-14,1.4552259605104413e-13,1.5658315622184282e-13,1.7195037455491872e-13,1.8748753283751773e-13,1.817613496927061e-13,1.9075315365487118e-13,1.805764541193784e-13,1.8531880907009227e-13,1.910968540228147e-13,1.6579526191728196e-13,9.892327641263459e-14,1.5737041495911893e-14,-1.7486610394539602e-16,1.2493563964653212e-16,9.047098558159804e-15,7.349360825503935e-18,7.314939217287003e-32,6.74950785606814e-15,-5.306784517103368e-16,3.0024725074056467e-15,-3.53194024901983e-16,7.499453327131783e-16,8.82222796511328e-15,3.0470417209015914e-18,-1.415221478949708e-15,3.739607054686186e-15,8.810051339697159e-15,-1.906858571545988e-14,-1.743182809989012e-14,4.933295405440272e-15,7.771620001119449e-14,7.874888857965592e-14,1.0006947412120189e-13,1.2942905592190951e-13,1.4002737526422701e-13,9.756244823140701e-14,4.429835069641042e-14,3.810484887335133e-15,9.079034102542738e-15,-1.3860619171181825e-16,3.636869924191104e-15,-2.2980106401971436e-17,3.047206672668006e-18,3.857314715651391e-27,1.1253197871793582e-14,7.020621773552839e-18,-3.6070687028593164e-27,7.580842301237218e-33,-2.1737916121584353e-27,-7.963640657065718e-27,4.588036288967412e-30,1.996830661934171e-29,-7.086762273868334e-26,-1.706997330909768e-25,-3.2076061413453036e-17,-2.8674674354602105e-16,-5.9400391745373515e-15,-7.680643906417408e-15,-6.242178049075462e-15,-3.0358630982012063e-16,-8.738537730899039e-17,1.0466240077412784e-18,-2.797872102982831e-21,-1.1543352188210326e-22,2.3486914206926027e-25,-7.828786017714062e-23,1.0109170906801288e-23,-9.764392694432457e-23,-1.264695011064487e-29,-3.902651697990286e-23,1.895741453473158e-34,1.2824133361730179e-34,5.018139141546599e-35,0,1.38907226638283e-29,2.7291019969895067e-33,7.438322921857064e-30,-7.038076090429392e-28,-1.4491907700860414e-27,2.109442766494965e-32,9.75787263600526e-32,-1.0805445253257486e-26,-1.2827859334675483e-16,-4.9259883381974903e-20,-6.000652524202209e-16,-6.334353070400061e-17,-2.671734971148477e-18,-5.4304800942312095e-18,-4.0228241401744235e-16,-2.020510949639827e-18,-2.734948388448677e-23,3.957053635506167e-24,-9.121843758148435e-23,-1.2272466356100612e-29,1.010971574756097e-23,-2.411717166480699e-22,-1.9211742833107253e-29,1.1704418844149224e-25,3.3454260943643985e-35,1.3939275393184994e-35,0,4.190767010442912e-166,1.4112209641598444e-32,-5.072178586979806e-27,1.1412385404388256e-29,2.577955583989379e-29,1.7831469545325674e-29,-5.796769047609453e-27,1.7193571068335824e-32,1.0453683945188199e-30,-1.0653756553142133e-18,-1.0267610741563316e-18,-1.2197222037485557e-19,-1.252089230678396e-16,-6.205339627411064e-17,-4.023790183452006e-16,-4.048890872006432e-16,-2.5650272786178946e-18,3.5225700439000137e-25,-6.500504635059397e-23,-1.5645887396341603e-22,-2.4077144326534667e-28,1.0109852450789586e-23,-3.577398622443114e-23,-9.191634400228248e-29,-1.174318020202398e-22,0,-2.5e-323,0,2.09538350522146e-165,1.529453468819006e-30,-7.23577593156421e-28,-7.245867965957323e-28,-3.622977412407489e-27,-6.510973374994046e-27,-7.003472831199945e-28,2.5270993720475005e-29,-6.507407771271073e-27,-1.5478439910307459e-16,-1.0685398458421422e-17,-2.4062730942233493e-18,-1.270771496126829e-16,-1.390301962882365e-18,-1.3759016640039227e-18,-5.2498187866203246e-18,-3.404219361770436e-16,-7.828793823550655e-23,-9.133646130372385e-23,6.739346976044692e-24,1.3597214221747366e-23,-1.7581439992002208e-22,1.1711361555922342e-25,-7.437625715717677e-29,-5.219191689097581e-23,8.363565235910996e-36,8.363565235910996e-36,8.363565235910996e-36,5.5757101572739966e-36],"v":[1.22227030225846e-25,5.044564068429566e-26,1.2518943733162547e-26,2.771677631536332e-28,8.791271620294133e-26,6.308399510350593e-26,3.418990478472941e-26,3.0659644899913336e-27,3.5681342205566875e-25,1.2507024676474399e-24,2.0345494568379764e-25,2.160700431044143e-24,8.127421957424899e-25,8.476201317965055e-25,2.126122134776898e-25,1.447546089431967e-24,6.686549887627514e-25,7.350816490737814e-25,1.8730161382136568e-24,8.211661272850638e-25,1.7317622747839148e-25,1.0568552107878204e-24,2.3160619337815238e-24,1.4618128005664807e-24,7.037369536995926e-36,7.231545032625228e-25,9.759015803773996e-25,5.73778668270046e-27,2.0416120909001238e-26,9.226643937593896e-28,1.6603018012720622e-25,1.2769766456748516e-25,3.926057101435179e-27,8.298877819295648e-28,2.8548291054539907e-25,3.378693877139063e-25,9.315660670362653e-25,2.239586352084428e-25,7.475993594371932e-25,1.7019947412881662e-25,1.0374767525468894e-24,1.0955061379617805e-24,1.054159265721487e-24,8.311648554601429e-25,9.000809403961366e-24,1.7462230717575246e-24,4.857238636245032e-25,1.6777052008369407e-24,1.6435366382113987e-24,5.837844957953474e-25,3.745980366857575e-24,1.6252988175536575e-25,4.4947920961212686e-27,3.043227546600942e-26,8.555804378634856e-27,1.2582829231160901e-26,3.068443019345739e-26,4.466049453658108e-27,8.639303076886056e-26,2.7871774997571735e-25,2.731825042353446e-25,1.1066961866146396e-24,1.7247203801044107e-25,1.9711279554547207e-26,1.3766680460046894e-24,9.81878651440812e-25,4.348225700005541e-25,8.2403930781527555e-25,1.6875918612630268e-24,8.44034704697866e-25,2.5149645760657357e-24,2.717405591159583e-24,9.306491389016006e-25,6.233797973672441e-24,3.597816675804389e-24,5.367488383779018e-25,8.941810665501173e-25,9.005625348736287e-25,1.623486779572474e-24,1.1427076071999707e-24,8.771844584863772e-26,2.3062066194480437e-26,4.481180726757009e-26,2.439758079108697e-25,1.5615420777770912e-27,5.364016714394934e-25,5.197153595697119e-27,1.4809326155829056e-26,5.485956199114924e-26,1.2682644484383093e-26,1.67036445098139e-27,4.1092105076561397e-25,4.29209791819152e-25,7.437949321079416e-25,2.188151673075658e-24,2.627314617285472e-24,1.0775787861725259e-24,3.731845174037235e-23,9.756509523335511e-23,3.7642251405024464e-23,6.115960010058864e-24,5.564042187660248e-23,5.563212484756168e-23,1.101320624792111e-24,3.5597738779053427e-25,1.4247572565602213e-24,1.842559135522281e-24,1.785096717241772e-24,2.1091418929153078e-27,1.0192093241391021e-26,5.253200297289407e-27,4.97937626364661e-27,4.3555201467873185e-27,7.026560226563193e-25,1.099930424660731e-27,7.6455099580139105e-28,3.905637307409809e-25,1.6375858396734582e-25,5.537649751374454e-26,1.8896427435376656e-25,6.55232019091928e-25,2.067500610392201e-24,2.0611766086446853e-24,1.9399440665619275e-23,2.6433932813271477e-23,9.996681933561754e-23,1.8535152382838524e-22,3.5502921549278943e-22,3.5182855535354447e-22,6.400006683675691e-22,1.3628868415856412e-22,1.6507964631387752e-22,1.8515474204560022e-22,1.4092744247500414e-22,2.4682562504333583e-23,3.483161924675131e-24,5.487503765244601e-25,3.713786200193873e-30,2.443873490630664e-26,3.145707305160927e-27,6.017540117376244e-26,6.1450258144823235e-27,7.773866520405902e-28,2.733511895545117e-25,9.504865664236367e-26,9.925414654029108e-26,1.115938524564631e-24,1.5051058235849543e-23,2.1530740124432884e-23,1.2781375806012704e-23,1.999483963897244e-23,3.598894446920155e-23,9.640429469306893e-23,1.3246797382957391e-22,2.9741127718259433e-22,8.1321910166617065e-22,1.5299287648554245e-21,7.7894475015568475e-22,3.595260454669142e-22,3.129631244226841e-22,2.4564170408255027e-22,2.29073849448192e-22,9.991828566990769e-23,1.0085223146280657e-23,4.022993672258752e-24,2.0134399604865024e-27,1.792472290909674e-25,9.940208544948083e-25,6.055002221855131e-27,1.4059082149789015e-26,2.188911523796598e-25,2.4001541743549745e-26,2.1672081878245495e-25,1.4058234195652094e-24,1.8570747215377145e-23,5.356466179958371e-23,5.0870709628942526e-23,4.3760565600002963e-23,3.9202227545726283e-23,4.776987852869484e-23,1.5115664225399597e-22,2.6113800256716236e-22,7.741198958592585e-22,1.7753283646716247e-21,1.9674084741480353e-21,1.073763119563143e-21,5.3848597742501085e-22,3.4363180453794187e-22,4.358169716160641e-22,3.466094088899468e-22,6.613085215061376e-23,6.149913212452791e-23,2.0283299615981585e-23,7.414394513680279e-26,2.370296699983869e-36,1.244775294576295e-25,3.653577822049005e-27,8.530120423449053e-26,3.3343895423285333e-28,1.2422438082992442e-25,1.1049341010033027e-22,1.344162238231735e-22,4.3205068231539976e-23,5.0659567529883467e-23,6.970047853814943e-24,4.325598991212699e-23,5.987842566090841e-23,6.562747677404165e-23,1.8146431811350862e-22,6.651804501407538e-22,1.7386359483257532e-21,2.0924055130596856e-21,1.778307072169233e-21,1.3115578041065231e-21,6.176879849256067e-22,4.1604016299107807e-22,5.422149858482537e-22,2.8497275350592134e-22,2.816970779940347e-22,3.402646051924051e-22,3.1728767032831917e-22,5.0791694402636577e-23,2.8793592675813595e-26,1.249951439970101e-35,3.522243135356748e-26,1.2320968411828757e-25,1.2141075747959974e-25,4.959077409114106e-26,1.1302454464568668e-22,2.2696783079006527e-22,6.354993684625509e-23,5.261937383108975e-23,2.717538646986879e-23,5.139683824131734e-23,5.261497513789949e-23,9.940688703302991e-23,3.487225825564313e-22,1.207601204122711e-21,2.071165672564407e-21,2.011086731687578e-21,1.5461008787980918e-21,1.2678045870467256e-21,6.688567517075271e-22,4.796579723760059e-22,7.818013594808136e-22,4.398716500959192e-22,3.0365255053672337e-22,1.5203955892567664e-22,1.3991723074307934e-22,1.8169181069613414e-22,3.004528106352535e-26,1.404044018827125e-25,1.1451185392723939e-25,1.6150111257620844e-25,3.9163409415508364e-25,3.3376862347020374e-25,1.4593326016797734e-22,1.978661498351296e-22,6.464297157754993e-23,4.314101574780849e-23,3.7318276053037066e-23,4.869519274105288e-23,7.458767100203202e-23,1.6627226820096104e-22,8.138169002432986e-22,1.851580419154351e-21,2.0139931706227153e-21,1.5985769522143141e-21,1.5260873514091135e-21,1.3752420842322437e-21,7.444746207639633e-22,7.988044334620933e-22,5.1517220219649595e-22,2.0091863023850895e-22,2.288486613850841e-22,1.9460820486310911e-22,6.82320381214836e-23,8.004923811953664e-23,2.9353550287369815e-26,3.9549466834869864e-26,1.6962230570520683e-26,8.341014437962708e-26,2.179882700901352e-26,1.487582976553986e-25,1.588791841119606e-22,1.2458345220601454e-22,7.271744232435239e-23,2.8885143641301725e-23,4.080342892151539e-23,6.88660699738514e-23,9.18793560648787e-23,3.187478855665543e-22,1.4015809183805589e-21,2.1844182424193055e-21,1.4780446625704966e-21,1.026522202041796e-21,1.6305154615503812e-21,1.5419202981665948e-21,9.037622255452748e-22,5.421986159055071e-22,2.121934952088616e-22,1.6082053239312228e-22,3.145685418125938e-22,2.3465334120184946e-22,4.556600998317415e-23,1.8343946526422078e-23,5.0491737750167435e-25,2.3911175559236495e-26,1.93464721451132e-25,6.138607491244188e-26,7.923831908714141e-26,1.846981762776225e-25,1.6927761776189668e-22,8.887778363688666e-23,8.471335777758722e-23,2.3622913499430568e-23,5.71322340116492e-23,8.812058677162844e-23,1.720584714765419e-22,5.433733206901016e-22,1.9955120522781413e-21,1.823690473481648e-21,6.822886075944143e-22,8.385181987894662e-22,1.8530795569114262e-21,1.4698292476783236e-21,8.172587309436448e-22,2.5360112534132055e-22,4.809220961806779e-22,5.577270913545155e-22,5.932603651765908e-22,3.4181221661678856e-22,7.42697766429246e-24,1.1245428664731411e-24,2.1967593329440955e-26,9.113936601706038e-26,1.0871374442218423e-25,4.6719954943217105e-26,9.978640593792883e-26,2.2103111416719253e-24,1.550387023360539e-22,6.721581312732235e-23,9.678962665417082e-23,6.168520686365473e-23,8.152484852146796e-23,1.081046260997768e-22,1.919307708786903e-22,1.0690539868599516e-21,2.0033065042419904e-21,1.5643261048864978e-21,7.1814134864469335e-22,8.522121681886873e-22,1.6063596888346666e-21,1.2143031351733722e-21,6.340184219560825e-22,2.435608600389399e-22,5.429173586305839e-22,5.097421811208434e-22,4.996734368074371e-22,1.472738097208068e-22,9.3669498512075e-24,3.3716523395179553e-26,2.1993962851153283e-25,1.1379336359417136e-26,4.9000062937478856e-26,7.752345356868957e-26,2.1813186219497595e-25,1.0701670365239168e-24,8.619649418700788e-23,6.185287682603651e-23,9.199625218345122e-23,5.659292173368026e-23,5.798345622803891e-23,1.112198445597832e-22,5.750861186680839e-22,1.3505663404037178e-21,1.9483446919258854e-21,1.1963972151605736e-21,6.484125015555423e-22,6.076640853874529e-22,1.5074664721231354e-21,1.32176116869906e-21,4.697659290873812e-22,1.8119895748654713e-22,1.1303848938945702e-22,5.482463795846042e-23,4.987837929872029e-23,5.509342595347755e-23,9.592216105163552e-24,1.1136483186349022e-27,1.3991438086719943e-25,4.003791752925263e-26,1.9274359753019067e-26,4.3330643267248484e-26,3.9918477805843487e-25,3.2993580176914326e-25,3.1677581807276715e-23,6.285498088855755e-23,7.287024832324789e-23,2.3779812242512667e-23,6.985137358605235e-23,4.280904625196632e-22,7.149844047803843e-22,1.879106119229439e-21,1.7529320193915193e-21,5.545181543995865e-22,2.770197164335773e-22,6.594802309001493e-22,1.690687388030483e-21,1.1563910152469608e-21,2.953964135860007e-22,5.996413944214457e-23,3.1820344141592125e-23,4.235253356587233e-23,1.6761919361445617e-23,4.738890103932626e-23,1.359843314595186e-23,1.2940430404870996e-25,4.0850591934441044e-25,2.8357146012858483e-25,3.038427712764703e-26,1.951947404107735e-25,7.823404000378356e-26,1.728152733035451e-27,1.0012084761474872e-23,6.08459677286871e-23,7.494768680656016e-23,1.0771908826543976e-23,8.564689085513711e-23,4.26268079731655e-22,1.0288944712210257e-21,1.8860174256331864e-21,9.581608726254455e-22,1.4329634483906875e-22,2.185903292439764e-22,7.292238093223072e-22,1.856721764504936e-21,9.651189701489539e-22,2.1751938573376497e-22,2.7144593852440286e-23,4.2935086192339746e-23,4.3792709462140625e-23,2.2823557173666458e-23,2.857742532560968e-23,2.5243330742482714e-23,2.6971590287238885e-25,2.431608299263397e-26,2.4398090905890397e-25,1.2165248757484975e-25,8.431830940189399e-25,3.85253046672483e-26,4.363192325163645e-25,1.0297908653462152e-23,5.529415858980202e-23,6.626816531910133e-23,2.6890491276508305e-23,2.3547504383064187e-22,6.655804239827382e-22,1.2866494233052003e-21,1.6467399601504347e-21,4.005465875866538e-22,1.0439865961739973e-22,2.5100170975451992e-22,8.121808298776304e-22,1.8612209385209587e-21,7.601818544094508e-22,2.0984917732807417e-22,4.6308231188988326e-23,5.604749698671249e-23,3.2587829126604776e-23,3.221887212742429e-23,3.709866373179537e-23,1.0816672303577135e-22,8.330634286016187e-24,3.7270585461640285e-26,1.7588884274450131e-25,5.616261670589897e-26,2.5262169092471836e-25,1.4274943714852474e-26,5.660048925040939e-25,1.3308744822706508e-23,4.443264122755171e-23,5.564725525182598e-23,1.2071373361597021e-22,5.876527320333488e-22,9.283573587172431e-22,1.3183498250031845e-21,9.847965787326337e-22,2.6095279343917944e-22,1.1195723529734478e-22,3.988954297115649e-22,1.1868273012262108e-21,1.5100393867614593e-21,5.364861120962066e-22,2.945234036418261e-22,9.208556553912904e-23,6.151792859117046e-23,2.6789997034738213e-23,2.4263554687065898e-23,4.100416347909618e-23,1.4491073508822137e-22,8.728606512897896e-23,1.1778618829162376e-25,1.8901251055741966e-27,1.620667072195988e-25,1.4803133066205304e-25,2.015379270864001e-25,1.5285782523471762e-25,1.8139498475044385e-23,2.5592114355016338e-23,9.027518923925836e-23,4.186436037926628e-22,6.0911901214660625e-22,7.853494164333953e-22,1.3007729699919967e-21,5.611033773028954e-22,2.7268895618705633e-22,2.523464050163022e-22,8.66011755405272e-22,1.2874930100495755e-21,1.3460313870740428e-21,3.872337322721386e-22,2.8730887818065634e-22,1.6787583776931231e-22,1.4185980160987536e-22,2.0694888586193512e-23,1.5734706064776945e-23,5.37455372394164e-23,1.4619792155831694e-22,9.19025648925786e-23,9.166421085053956e-26,3.9741530459094863e-25,2.3416212731705585e-25,1.4467254942987483e-25,5.187231431987587e-25,3.3551859488738604e-25,2.3564458005121315e-23,1.9713962637157232e-23,1.5368452035912027e-22,6.062455920202252e-22,5.922433140027899e-22,1.0732362624514319e-21,1.375036995548742e-21,5.0054537309401565e-22,5.025487471276243e-22,6.720986595224912e-22,1.0014668745749406e-21,1.4009442162241209e-21,8.635007516480781e-22,1.8103320765386644e-22,1.7985145486069605e-22,1.6510494714657015e-22,1.3871939285644838e-22,7.274019201034376e-23,2.0418392132266123e-23,6.07072049149093e-23,9.778033722114351e-23,8.932095095798723e-23,2.2549156802192634e-27,8.184247618635192e-27,2.1109131158904878e-26,2.080026078534279e-24,4.2396309146482686e-26,3.581293796175789e-25,2.335564065047189e-23,1.387281610000898e-23,3.135755213058801e-22,5.370106902604744e-22,6.292750266009974e-22,1.4674498085833652e-21,1.2750872812624589e-21,8.930716495640877e-22,8.204274292540952e-22,5.999001852324595e-22,1.1838383243761543e-21,1.3740561037108896e-21,6.145514784663413e-22,4.305474183823742e-22,3.3474780874118806e-22,1.4365447663043616e-22,1.9112985484946242e-22,1.293248923238584e-23,2.5818033088187644e-23,5.7697387208571e-23,9.344513787872313e-23,3.8767928284457813e-23,2.381682565893936e-26,2.9957844783785034e-27,6.796624429825188e-26,6.5760972812914e-25,5.260945666911165e-26,1.7865422177027833e-25,1.810813374171461e-23,2.5263740427684997e-23,3.0334201332558234e-22,5.246275665767316e-22,1.0702760290686327e-21,1.8093618473087912e-21,1.4144084716126221e-21,7.861497168667532e-22,6.202075228100201e-22,1.128029397393468e-21,1.5040778155838998e-21,1.0350209044787288e-21,6.004349025563507e-22,3.659973224016279e-22,1.397709996660801e-22,8.687738813518754e-23,5.375261323223418e-22,1.1555241884844876e-22,5.0501094907038836e-23,3.420230154839865e-23,6.138807946623312e-23,9.317501218550098e-25,1.2148664688995405e-26,9.314811876269408e-25,1.9338518496990945e-25,2.1725249979056475e-25,5.283305226539339e-25,2.700583087539848e-26,5.526412657133942e-24,3.320517584335058e-23,6.941196899441851e-23,2.7657041971821564e-22,9.536540310275571e-22,1.3959499922207833e-21,1.3159984489194763e-21,1.355738715831553e-21,1.5970939615989049e-21,1.7175425256748107e-21,1.1824065346726568e-21,7.958717689071911e-22,2.4820073175386904e-22,1.0894751209289393e-22,3.4961711050499224e-23,6.193753627791517e-23,5.661639094208072e-22,2.0252486623572913e-22,9.519090175934276e-24,2.634775334181525e-24,1.189780759260328e-24,1.7664743117205967e-25,3.154266880940909e-26,1.979871674992474e-26,6.935375571805789e-26,1.257703297862036e-25,1.7205703816823106e-25,4.429241621180896e-25,6.903654447609401e-25,9.294016665140122e-24,3.1745329452803297e-23,5.381787845084745e-23,1.8661314185086696e-22,8.942373415080879e-22,9.995808114647472e-22,1.267345680165282e-21,1.207053484964447e-21,9.287937666263296e-22,5.015891596306731e-22,2.848099592477926e-22,8.495465450772958e-23,6.326179808649413e-23,4.972257448111285e-23,1.0171587898081979e-22,4.536474272379294e-22,8.730258512939206e-24,3.381880789571632e-24,1.667914477152784e-25,8.17972573012897e-28,3.525476196182741e-26,4.837165457400419e-27,2.368192773889611e-25,7.833322668163604e-28,1.1929730253427138e-27,1.033596076562756e-26,6.511560752773474e-26,2.4630492118555136e-26,1.0401313786149179e-25,2.6153908867336427e-24,1.4002389897925356e-23,2.5009592116582667e-23,1.1491155953505744e-22,4.0632799313590547e-22,4.631587413773107e-22,5.180481366050621e-22,1.677481362044471e-22,1.367104394138771e-23,1.430942072555044e-23,6.481043749194712e-24,4.6271612857889445e-24,2.1135693325488962e-24,6.694270114239017e-25,6.024029605849534e-26,1.08144250753431e-25,2.9203326586832784e-26,2.755544174033596e-27,2.0243002922398596e-61,9.26345029926372e-62,1.418411104424124e-62,0,3.733236086546295e-26,1.4708232632235098e-27,1.3764783790378842e-27,7.418984924617765e-27,1.5403645432080292e-26,1.0428474664695743e-27,9.033699305715893e-27,7.693929183123142e-26,2.0529295146263677e-25,1.4372428869835627e-24,4.6779552552019536e-24,4.9677023803416324e-24,2.4229289782849595e-22,6.534762437147158e-23,1.8073066544502317e-25,3.577285594339997e-25,2.2000537000647936e-26,1.9861989234320788e-27,3.41145801121427e-28,1.316974667258418e-27,5.523007878479832e-27,7.023465628489808e-28,8.002587152191742e-27,6.534068491091538e-27,6.304049352996106e-63,1.0944530126729341e-63,0,1.0262301651337813e-89,1.5790809540295246e-27,5.4358390284180545e-27,2.347118544251851e-28,1.5254241424077579e-27,3.2049409811222097e-26,6.062799914263004e-26,3.254303605567342e-27,3.878413295655488e-28,1.9257087992089315e-25,6.477095150240068e-25,4.962274292292895e-26,2.0338656547217421e-25,7.225504884109703e-25,1.36368260081569e-24,1.4217544044902822e-24,2.4437011856825496e-25,3.9907579106205293e-28,9.667545012926516e-28,1.9407955206897794e-26,2.5206733678883135e-26,1.8719725403567215e-26,1.2262650282305681e-26,7.874935660070444e-28,6.085767822205374e-28,0,2.465e-321,0,2.565575412834454e-88,2.1784261902328914e-28,2.4467127011363242e-26,1.8357601891109246e-26,9.399582864216692e-28,6.189836167834617e-28,4.662445386641895e-27,2.5176147035779718e-26,3.622142383015911e-26,3.618703343211787e-25,5.398197844244502e-25,1.3025553813689506e-24,1.4201494026269223e-24,2.3907369139840906e-25,1.145921219404458e-25,9.83295029530611e-25,1.2427986361305972e-25,6.317730651999209e-28,8.203621144227006e-27,1.5211298208136198e-26,3.900911225964935e-27,5.2993328607038834e-27,7.972697696047467e-27,3.29663144727302e-27,1.2186214280481048e-28,3.940030845622566e-64,3.940030845622566e-64,3.940030845622566e-64,1.751124820276696e-64],"mb":1.1537745449799403e-13,"vb":3.2138532722834103e-21,"learningRate":0.001,"epochs":1000,"batchSize":2,"beta1":0.9,"beta2":0.999,"epsilon":1e-8}
